//Numpy array shape [3, 9, 16]
//Min -1.050720214844
//Max 1.111559629440
//Number of zeros 0

#ifndef W2_H_
#define W2_H_

#ifndef __SYNTHESIS__
model_default_t w2[432];
#else
model_default_t w2[432] = {-0.3477829993, 0.2148187757, 0.3650199771, -0.5126272440, -0.3164180815, -0.0075955610, -0.7796682715, 0.0137580950, 0.2202540636, 0.7392134070, 0.0968206748, 0.1644997597, 0.2916945815, 0.4833273888, -0.0139695518, 0.2456458658, 0.3579027355, 0.2804637849, -0.6669554114, 0.4576694965, 0.1881910115, 0.2600407600, -0.1411304921, -0.4370997250, -0.8684177399, -0.1216720790, 0.4244110882, -0.4100962877, -0.9523141384, 0.7091596723, -0.7819825411, -0.1956312209, 0.4140857160, -0.6859974861, -0.4834971726, 0.5072690248, 0.4191727042, 0.4312535822, -0.2682440877, -0.0514900386, 0.0553659201, 0.0667531341, 0.2617642879, -0.1073439717, 0.0158509705, 0.5144525170, 0.0705371276, -0.5559038520, -0.1169478223, 0.3505156040, 0.2546849251, -0.2848897278, -0.9795847535, -0.0343416743, -0.0809078068, 0.9734648466, 0.2365006357, -0.6588921547, 0.4886896908, -0.4284941554, 0.2529681027, 0.4777067900, 0.1115657985, 0.6657245159, 0.1166518033, -0.3895597756, -0.3532080650, -0.4946723580, 0.5705396533, -0.0111830821, -0.2754652500, -0.7990900278, -0.6953459978, 0.3162032664, 0.2407457232, 0.3762620389, -0.3202939332, -0.2323089540, -0.5497861505, -0.4762975872, 0.1677723229, -0.8641992211, 0.8373255134, 0.7145061493, 0.8030233979, 0.1489344090, -0.0209422130, -0.2132017016, 0.4181485474, 0.7059761882, -0.6239128709, -0.9108372331, 0.3777723014, -0.4526709914, -0.2449271530, -0.4525034428, -0.1048207730, -0.3973248303, 0.3271609247, -0.1851777434, 0.5013674498, -0.3236632943, 0.0077759400, -0.5692558885, 0.4210586846, 0.0684813559, -0.3539358079, -0.1842883825, -0.1347183585, -0.2469756901, -0.6997061968, 0.1553279608, -0.2628414929, -0.3930690885, -0.4488988221, 0.2044298649, 0.5448689461, 0.1599219441, 0.0556740314, 0.1326409578, 0.1910452247, 0.1957366168, -0.1602160633, 0.3328037560, 0.2444650233, 0.0277222563, -0.6337285638, 0.5345638990, 0.2256924957, -0.3926894069, 0.4322353303, 0.1728110760, 0.2402827442, 0.2603237033, 0.2551899850, 0.2438689023, 0.7377809882, 0.2246382684, -0.2732737958, 0.7251673937, -0.5001484156, 0.0121970354, -0.6734767556, -0.2614494860, 0.0184729472, -0.3343179524, 0.3124285638, -0.4500829279, -0.2332933694, -0.5099154711, 0.7734837532, -0.0267931968, -0.1485738307, 0.6647353172, -0.1366989315, -0.0268407296, 0.4454953969, 0.3665103614, -0.0969965234, -0.2080539018, 0.6142473817, -0.2619844377, -0.4032250345, 0.1059847400, 0.4979740977, 0.2665822804, -0.1677625626, -0.2928743958, -0.5406128168, -0.4529731572, 0.2845965624, 0.0422804654, -1.0507202148, 0.3787935376, -0.6562601328, 0.4022296667, 0.1489814371, -0.7430184484, 0.0372403897, 0.2724128366, 0.2875135839, 0.3816202581, 0.1176614761, -0.1172669977, 0.5119627714, -0.3052162528, 0.1502637118, -0.1502226591, 0.0437450744, 0.5885265470, -0.1256722808, 0.5563401580, 0.1184471250, -0.5110855103, 0.4645335972, -0.6001768708, -0.7659206390, -0.3822672069, -0.3646183312, 1.1115596294, -0.5521110892, -0.3320861459, 0.4281235337, -0.4119130671, 0.0234536342, 0.1012644619, 0.6196235418, 1.0120700598, -0.1243353412, -0.3818984628, -0.7338646054, -0.4696682096, 0.2300644070, 0.1741378009, 0.0637134835, -0.7055605054, -0.8540740609, 0.7378177047, -0.0108764572, 0.2709945440, 0.4804135561, -0.3931471705, -0.6026969552, -0.5074668527, -0.0322021917, -0.9224262238, 0.6465991139, 0.0055523580, 0.4481632710, -0.1018001735, -0.2499344647, 0.0490817688, -0.0225989912, 0.6994449496, -0.4288356006, -0.6938151121, 0.0740381777, 0.0312112384, -0.4502391517, 0.3086331785, -0.2787479758, -0.4511405230, -0.2029619366, -0.1562197655, 0.6018875241, -0.4708921611, -0.2270773798, -0.5354565978, 0.2966491878, -0.1561407149, -0.5353198051, -0.3981481194, -0.3733322620, 0.0920116305, -0.1027501076, 0.3194309771, -0.1893882751, 0.4769817293, -0.2540411055, 0.4216130078, 0.2003495097, -0.2587494254, -0.0340308808, 0.1823736280, 0.3423923552, 0.0590795428, -0.5190153122, 0.1395257860, -0.2008496225, 0.3252515793, -0.5950438976, 0.1238423437, 0.0393503606, -0.6151373982, 0.5614833236, 0.0805111080, 0.3078179061, 0.3317396045, -0.2635909915, -0.1859499961, 0.2436252832, 0.3559751511, -0.6556830406, 0.4871260822, -0.0207012016, -0.5252130032, -0.6845000386, -0.3418161273, 0.0313418284, -0.1264270097, 0.5984070897, -0.0628029630, -0.5932349563, -0.3281438947, 0.3896304965, 0.0793040395, 0.0412354469, 0.8328858614, -0.1614705771, 0.0123168835, 0.4606743157, 0.4602357447, 0.3089404702, -0.0584130995, 0.6609001160, -0.3655770421, -0.0756387189, 0.4441786110, -0.9520357847, 0.4449159801, -0.3144902885, -0.1653289944, -1.0379452705, -0.2080387473, 0.1869821995, -0.1362539381, -0.9471731186, 0.2886065245, -0.6760160923, 0.2226414531, -0.0009650969, 0.0691681132, 0.1320861876, -0.2456088662, 0.4926909506, -0.1757401526, -0.1192108542, -0.0224908926, 0.3242755234, -0.0202161297, 0.4139738381, 0.0776087046, 0.0938238576, 0.6417860389, 0.5212312341, 0.4470453560, -0.4173730612, -0.8553406000, -0.2621781230, -0.3608154655, -0.5196483731, -0.3546622992, 0.2196822762, 0.6472204924, -0.7357853651, -0.1950570941, 0.5619485378, -0.4296195805, 0.4497686327, -0.3855843842, 0.4187685549, 0.9871208072, 0.1415300071, -0.4669471681, -0.6841148734, -0.2143246680, 0.5376025438, 0.1165777668, 0.1971567869, -0.4635877311, -0.4749436677, 0.4235798120, -0.4060175717, 0.3322438300, 0.4784019887, -0.0904192105, -0.4632193148, -0.1418022662, 0.1916725636, -0.4209055603, 0.5078544021, 0.0735300481, 0.7225409150, -0.7203493714, -0.0518093966, 0.3887040019, -0.0790340900, 0.4113134146, -0.6029036641, -0.0721476004, 0.1902023107, -0.3480356038, 0.1285879612, 0.7283918262, 0.1584630013, -0.0509677753, -0.7604803443, 0.2150077224, 0.4208708405, -0.1968889832, -0.2473881692, -0.2128021866, -0.2791897655, -0.0757202804, -0.1950653493, -0.4389964044, -0.4171844721, 0.1356527954, -0.0810585916, 0.2615155876, 0.1154573262, 0.6998314857, -0.5278487206, 0.3295983672, 0.7673454285, -0.3565933108, 0.0863214359, -0.1130061969, 0.2285009474, -0.1145971119, -0.3397876620, 0.5384517908, 0.0494389348, 0.0183724537, 0.4364090562, -0.2029761523, -0.0354773626, -0.7977098823, -0.1038630009, 0.3147665858, 0.2116642147, 0.3235923052, -0.2421196550, -0.4159020782, 0.2675363123, 0.5585913658, -0.6101177931, 0.4262121618, 0.0870319754, -0.0306120832, -0.1168585643, -0.2558786869};

#endif

#endif
