//Numpy array shape [16, 6]
//Min -1.157741546631
//Max 1.304456949234
//Number of zeros 0

#ifndef W6_H_
#define W6_H_

#ifndef __SYNTHESIS__
model_default_t w6[96];
#else
model_default_t w6[96] = {-0.7028913498, -0.7678696513, 0.0375432447, 0.7704516649, -0.6632519364, 0.8725219369, 0.7987088561, 0.1320177913, -0.0244690217, -0.0858125016, -0.9458640218, -0.0313253477, -0.3255602717, 1.0368851423, -0.2411273569, 0.3172244728, 0.3922142386, -0.7979785800, 0.0670302734, 0.2551235557, -0.6471743584, -1.0217432976, -0.2261030525, 0.7607301474, -0.9942485094, 1.0854775906, 0.1077270582, -0.2506168485, -0.8508519530, 0.6393882632, 0.1477308422, -0.6699742079, 0.9315572977, -0.8635706306, 0.1441263407, 0.7289692760, -0.4619950950, -0.3383222222, -0.1426446587, 0.8354031444, 0.7167822123, -0.8717225194, -0.3919009268, 0.7141924500, 0.9684108496, -0.3523494005, -0.7258381844, -0.1461919695, 1.1606752872, 0.2569822073, -0.8512586355, -1.0973757505, 0.3382541239, 0.5506621003, 0.2895585597, 0.1398251206, -0.4291306436, 0.5465211868, 0.4977623522, -0.4730625749, 0.9448304176, -0.9483429790, 0.0254721530, 0.3100069165, -0.4895565212, 0.7622830868, 0.7564989924, 0.9572654366, 0.6177786589, -0.8476355076, -0.1097869873, -0.6641376615, -0.6079946160, -0.2377550304, 0.4016283751, -0.7154145241, 0.7611392736, -0.5115829706, 0.1556265801, -1.1577415466, -0.1108678952, 1.2171950340, -0.1060550213, 0.6704012752, 0.8758167624, 0.3339750171, 0.6911250949, -1.0001937151, -0.1456121951, 0.1164024100, -0.4948920012, -0.6848090887, 1.3044569492, -0.7794191241, -0.3496398330, 0.2970500886};

#endif

#endif
